{"output_weights": [[-2.0733326807603416, 0.26344151084855777], [-1.0258060105153635, -0.8626884908627924], [0.6704917889630241, -0.10066498923398891], [0.28302408513399946, -2.3366854851613246], [-1.363025880798894, 0.269852876234275], [0.5035982315556436, 0.5741127349561026], [-0.3025192370696417, -1.587409933102335], [-0.6811833843714372, -1.530860795176225], [1.5133297819702323, -0.2675192940857436], [0.37768453516880196, -1.930162678843651]], "input_weights": [[1.0075452473574866, 1.4980166845350544, -0.21148827944550708, 2.617132622297208, 0.6446538521476064, -0.7832983548317203, 2.1194505490616016, 1.891469473029094, -0.3960230254284834, 1.8841603791544177], [0.6752038146501155, 0.6273236137002566, -0.2994980341523122, -0.2238147539515567, 0.8748733364455547, -0.422681845525751, 0.044775695820071945, 0.05895884666182463, -1.189417533978943, -0.9101747447067036], [-2.799734048676906, -0.3634736737659779, 1.0062146127137217, 1.961084843811988, -1.686752816162962, -0.10970805390523897, 0.8186981905218814, 0.13955057194901996, 1.8797443614456297, 1.8085491961997655], [0.08435013965924837, -0.0873838263999968, -0.4446928657861108, 0.08296177271515455, -0.07506658054708681, 0.48682159741792114, 0.28587000798082896, -0.3453998818922748, -0.042737723877007645, 0.162072291202662]]}