{"input_weights": [[-1.5678666039807863, 0.9796473349372326, -0.3008922546763864, -0.08327730847323397, -0.6539122993207325, -0.6195723449930832, 0.48533476597990055, 0.7313062941570382, 0.6934637705766572, 0.23922749597021697, -0.9203762979731147, -0.08082695593243937, 0.944438923414551, -1.3644450352461737, 1.7998665149801993, -0.33255164016220745, 1.0141901596223264, -0.7714661114715343, -0.9871862394373043, -0.7092932774320343, 0.8566290502155035, 1.155349429325627, 0.9664514382498176, -0.7882673285910767, 0.14097400508424257, -0.14411271277782464, 0.20451562980986557, 0.5480752921473605, 0.5067686620681703, -0.5514032510833726], [-0.4439163362399224, 0.30925578139697124, -0.3490958037135913, 0.17523087576014662, -0.050395416039218155, 0.4877556162224419, -0.39910896744874813, 0.20874095882543472, -0.301453081124628, 0.39783595089185403, -0.2207389896049382, 0.19683999353447412, 0.040354196608440335, -0.0829520400175624, -0.2114434945778256, 0.0733028160615558, -0.010483518657254378, 0.04818676281132351, -0.1558832499939987, -0.5915998066601741, 0.5387956418827484, -0.04667941238110534, 0.5082253694808814, 0.46885849894871834, -0.5198051286170302, -0.6857343327599695, 0.3950373113590363, 0.22757108579085011, 0.6146280534858639, -0.10937564820916017], [0.14195903381013583, -0.2333544443153878, 0.5483408497484558, -0.33624605683155795, -0.22194934510422307, 0.08861286971587615, -0.023577712068709008, 0.6228206904911271, 0.5061084484994073, -0.17233802081458563, -0.011646673688110084, 0.4350943539719243, 0.26379676678117764, -0.27522242015108483, 0.07623714643287141, -1.1814608506058424, 1.2803885858591468, -0.2505108453588702, 0.5621119086116971, -0.3325225595468074, -0.876840546362484, 0.14333322327206605, -1.273214260730522, -1.2189367958871051, 1.0316809188506542, 1.3314939923031828, 0.5744145066992944, 0.919210357673155, -0.9072562408186171, -0.1789325077519049], [-0.07937822131348626, 0.46953132309009155, -0.5162138231000574, -0.056675299560547766, 0.2932008083930294, 0.14118960671241781, 0.47691561236998015, 0.42772510150742765, 0.2356743049803987, 0.14990364017841618, 0.3084717705118727, -0.005573864784479993, 0.18374709189542096, 0.09367833675650072, -0.2087646685746301, 0.47620586288248934, -0.17293341685818558, -0.32162193415948853, 0.3175417827944009, 0.4283132988174129, 0.36000232286570644, 0.18761312012124387, -0.2826071694158332, -0.23499692476399936, -0.1679572442841429, 0.4508691475335187, 0.15638220921899096, -0.10554892420198547, -0.04515408186067065, 0.3556140787905565]], "output_weights": [[0.7832153189217296, 1.1148223698248485], [-0.7855315027434829, -0.4597828981718392], [0.4944986727727729, 0.06906536989167408], [-0.12820888260607885, 0.10779759201521572], [0.32406415978527187, 0.491887512746992], [0.13330238237312328, 0.5450801824528011], [0.02944812752106767, -0.3873008216277505], [-0.1568642128806203, -0.6494438245310671], [0.14178716688165657, -0.8047990331882462], [-0.21814632931174596, 0.17633859229866877], [0.4716102690727357, 0.5826963171955224], [0.14816661248466706, 0.08639119137580162], [-0.6167996214834175, -0.7435706407523804], [0.4244784300940669, 0.9476792031841251], [-0.6572553697047679, -1.275031082890688], [-0.5613597534883893, 0.5119951064218721], [0.09654463520893301, -0.8282665775297371], [0.11991468568439141, 0.5243524278823487], [0.7943290935636709, 0.29535812471847517], [0.3042514661429436, 0.5483954908518054], [-0.7606980321888412, -0.28229903956634195], [-0.23672983785192767, -0.7004703497620153], [-0.9977882314775485, -0.2621507151845133], [-0.4698067943957227, 0.41328711575711774], [0.4168250293248815, -0.3910902012357359], [0.7342877975594999, -0.37745889977735586], [-0.20908156854846935, -0.13104487038972323], [0.5146994545160725, -0.7126338769259971], [-0.8202144009015214, -0.032051314371900584], [0.11403844526324425, 0.2936277159276333]]}