{"output_weights": [[-1.0758430108338408, 0.7293683009131069], [-1.0907038878761557, 1.0856239530721807], [0.21175525546535987, 0.1488115981368625], [-1.1981265908949683, 0.24942858409787694], [-0.7944081201825428, 1.108500342590869], [1.093370132862166, -1.616884064270166], [0.822784750328506, -0.43178811164223574], [0.25656738731664797, 0.41571191284200015], [-0.3169560149849648, -0.39725309366780076], [-0.4884503352778211, 0.9441148960150353]], "input_weights": [[0.28655494935676257, -0.33292669036362466, -0.03588985216446234, 0.3214013219080468, 0.1231104898569937, 0.23082366323917156, 0.07650228646320441, -0.3928634846798205, 0.5671676101394716, -0.2999474328619106], [0.09744153667047224, 0.21983552993715302, -0.19533741445514866, 0.07282261534131915, -0.5091033153422512, 0.6130165997115182, 0.23501245315982594, -0.28680799761425196, 0.41823008485213603, -0.4263204047767711], [-1.279052167068807, -1.482045269210759, 0.11950195272953051, -1.0736553092227508, -1.1753162431693602, 1.6737031574737649, 0.8104362747655239, -0.02318329420126214, -0.15320909099456156, -0.9519648537153499], [0.07164060665754857, -0.06305898769578705, 0.4156254197155508, -0.04348977711568846, -0.06559259896768418, 0.08414283350535214, 0.051849153140930464, -0.025718132778991175, 0.06744671615936157, -0.1417058485877488]]}